<?xml version="1.0"?>
<opencv_storage>
<stage4>
  <maxWeakCount>8</maxWeakCount>
  <stageThreshold>-1.1538668870925903e+00</stageThreshold>
  <weakClassifiers>
    <_>
      <internalNodes>
        0 -1 60101 5.0218176096677780e-02</internalNodes>
      <leafValues>
        -7.6153844594955444e-01 5.6290322542190552e-01</leafValues></_>
    <_>
      <internalNodes>
        0 -1 5395 6.7447468638420105e-02</internalNodes>
      <leafValues>
        -5.8142960071563721e-01 5.3766018152236938e-01</leafValues></_>
    <_>
      <internalNodes>
        0 -1 73048 3.0835075449431315e-05</internalNodes>
      <leafValues>
        -6.9425648450851440e-01 3.8547217845916748e-01</leafValues></_>
    <_>
      <internalNodes>
        0 -1 40275 2.9783912003040314e-02</internalNodes>
      <leafValues>
        -4.8462685942649841e-01 5.2418327331542969e-01</leafValues></_>
    <_>
      <internalNodes>
        0 -1 73049 1.2301464448682964e-04</internalNodes>
      <leafValues>
        2.3681952059268951e-01 -9.0074169635772705e-01</leafValues></_>
    <_>
      <internalNodes>
        0 -1 72539 -1.7372210277244449e-04</internalNodes>
      <leafValues>
        -9.1799002885818481e-01 1.8433275818824768e-01</leafValues></_>
    <_>
      <internalNodes>
        0 -1 43336 -6.4131863415241241e-02</internalNodes>
      <leafValues>
        2.9685083031654358e-01 -5.9106349945068359e-01</leafValues></_>
    <_>
      <internalNodes>
        0 -1 52260 -1.9064923981204629e-03</internalNodes>
      <leafValues>
        2.1345403790473938e-01 -8.8307100534439087e-01</leafValues></_></weakClassifiers></stage4>
</opencv_storage>
