<?xml version="1.0"?>
<opencv_storage>
<stage5>
  <maxWeakCount>7</maxWeakCount>
  <stageThreshold>-1.2933750152587891e+00</stageThreshold>
  <weakClassifiers>
    <_>
      <internalNodes>
        0 -1 72537 1.3499951455742121e-04</internalNodes>
      <leafValues>
        5.6712776422500610e-01 -7.2693729400634766e-01</leafValues></_>
    <_>
      <internalNodes>
        0 -1 23085 1.3514478690922260e-02</internalNodes>
      <leafValues>
        -7.2508054971694946e-01 3.4494310617446899e-01</leafValues></_>
    <_>
      <internalNodes>
        0 -1 50235 2.9647948220372200e-02</internalNodes>
      <leafValues>
        -3.1559750437736511e-01 7.3583692312240601e-01</leafValues></_>
    <_>
      <internalNodes>
        0 -1 72682 -3.7014042027294636e-04</internalNodes>
      <leafValues>
        -9.8344868421554565e-01 2.4687513709068298e-01</leafValues></_>
    <_>
      <internalNodes>
        0 -1 39840 -7.8947516158223152e-03</internalNodes>
      <leafValues>
        5.4033541679382324e-01 -4.5374622941017151e-01</leafValues></_>
    <_>
      <internalNodes>
        0 -1 70688 6.2185623391997069e-05</internalNodes>
      <leafValues>
        -8.4909099340438843e-01 2.3663143813610077e-01</leafValues></_>
    <_>
      <internalNodes>
        0 -1 32276 -2.8087459504604340e-03</internalNodes>
      <leafValues>
        2.0524311065673828e-01 -8.4958505630493164e-01</leafValues></_></weakClassifiers></stage5>
</opencv_storage>
