<?xml version="1.0"?>
<opencv_storage>
<stage2>
  <maxWeakCount>5</maxWeakCount>
  <stageThreshold>-4.9698695540428162e-01</stageThreshold>
  <weakClassifiers>
    <_>
      <internalNodes>
        0 -1 63748 1.0537521541118622e-01</internalNodes>
      <leafValues>
        -5.4032260179519653e-01 7.6494026184082031e-01</leafValues></_>
    <_>
      <internalNodes>
        0 -1 50356 2.4106785655021667e-02</internalNodes>
      <leafValues>
        -4.4422191381454468e-01 7.8070503473281860e-01</leafValues></_>
    <_>
      <internalNodes>
        0 -1 26568 -5.6210834532976151e-02</internalNodes>
      <leafValues>
        5.1545691490173340e-01 -6.0094213485717773e-01</leafValues></_>
    <_>
      <internalNodes>
        0 -1 51855 -4.0090873837471008e-02</internalNodes>
      <leafValues>
        4.5252698659896851e-01 -6.3322645425796509e-01</leafValues></_>
    <_>
      <internalNodes>
        0 -1 34172 -8.0258278176188469e-03</internalNodes>
      <leafValues>
        6.3597267866134644e-01 -4.5874896645545959e-01</leafValues></_></weakClassifiers></stage2>
</opencv_storage>
